svm_type c_svc
kernel_type rbf
gamma 0
nr_class 3
total_sv 148
rho -1 -1 -1
label 1 2 3
nr_sv 60 60 28
SV
2 0 1:0.701309 2:-0.642247 3:-0.735091 4:-0.0111883 5:-0.0743778 6:0.191083 7:0.540243 8:-0.353418 9:-0.529481 10:0.528662 11:-0.894325 12:-0.307778 13:-0.740446 14:-0.625478 15:-0.710403 16:-0.280739 17:-0.469541 18:0.714479 19:-0.22657 20:-0.0371385 
2 0 1:-0.0124958 2:-0.37041 3:-0.107435 4:0.216885 5:-0.521528 6:-1 7:-0.603577 8:-0.235462 9:-0.627489 10:0.311475 11:-0.874029 12:-0.700123 13:-0.777322 14:-0.892896 15:0.159441 16:0.218397 17:-0.284854 18:1 19:-0.431248 20:0.0357616 
2 0 1:0.173611 2:-0.328787 3:-0.234822 4:-0.313281 5:-0.442492 6:-0.825234 7:-0.322005 8:0.124631 9:-0.0553097 10:-0.327103 11:-0.403445 12:-0.300366 13:-0.857185 14:-0.679439 15:-0.398027 16:-0.317388 17:-0.722023 18:0.185979 19:-0.148865 20:0.235988 
2 0 1:-0.284864 2:-0.169059 3:-0.288467 4:-0.199882 5:-0.0831376 6:-0.75177 7:-0.197506 8:-0.27488 9:0.0506096 10:0.380531 11:-0.614785 12:-0.272219 13:-0.684458 14:-0.479646 15:0.14002 16:-0.715227 17:-0.526208 18:0.246526 19:-0.654596 20:-0.205742 
2 0 1:-0.603436 2:-0.153624 3:-0.244177 4:-0.31068 5:0.288442 6:0.0226563 7:-0.197088 8:-0.247119 9:-0.605874 10:0.265625 11:-0.401035 12:-0.570069 13:-0.681641 14:-0.502344 15:-0.14158 16:-0.36847 17:-0.419071 18:-0.174532 19:-0.288504 20:0.456299 
2 0 1:-0.00110674 2:0.0372533 3:-0.206197 4:-0.0556112 5:-0.468343 6:-0.862668 7:-0.496829 8:-0.314851 9:-0.397428 10:0.263158 11:-0.784103 12:-0.259631 13:-0.925184 14:-0.616157 15:0.0388141 16:0.0840461 17:-0.635941 18:0.509664 19:-0.596583 20:0.0322594 
2 0 1:-0.136626 2:0.278327 3:-0.266032 4:-0.678814 5:-0.324365 6:-0.183406 7:-0.788805 8:0.166582 9:-0.0369669 10:0.572052 11:-0.886369 12:-0.0662787 13:-0.911026 14:-0.572052 15:-0.205822 16:-0.692757 17:-0.636323 18:0.272007 19:-0.0152393 20:-0.623343 
2 0 1:0.723838 2:-0.158351 3:-0.170937 4:-0.27675 5:-0.43954 6:-0.543902 7:-0.55765 8:-0.69089 9:-0.360812 10:0.0243902 11:-0.839202 12:-0.141427 13:-0.751524 14:-0.641463 15:-0.0758808 16:-0.390392 17:-0.202001 18:-0.509912 19:-0.0480338 20:0.537366 
2 0 1:0.509435 2:-0.442334 3:0.0748084 4:-0.166981 5:-0.0906942 6:-0.794505 7:-0.468531 8:-0.140944 9:-0.386211 10:-0.208791 11:-0.630567 12:-0.241544 13:-0.664148 14:-0.784615 15:0.415629 16:-0.594576 17:-0.738518 18:0.327816 19:-0.714061 20:0.475966 
2 0 1:-0.0505681 2:-0.39925 3:0.969746 4:0.370086 5:-0.678123 6:-1 7:-0.742747 8:-0.00950772 9:-0.412799 10:-0.234043 11:-0.823501 12:-0.0940431 13:-0.132979 14:-0.374468 15:-0.516312 16:-0.411369 17:-0.493726 18:0.276831 19:-0.261832 20:-0.7024 
2 0 1:-0.205395 2:0.0866355 3:-0.752937 4:-0.471828 5:-0.0045649 6:-0.646336 7:-0.313991 8:-0.389211 9:-0.323187 10:0.191489 11:-0.680444 12:-0.56501 13:-0.759161 14:-0.536643 15:0.00320462 16:-0.367264 17:-0.128084 18:0.546862 19:-0.261832 20:-0.114407 
2 0 1:0.673035 2:-0.678821 3:0.157666 4:-0.625462 5:-0.567502 6:-0.590511 7:-0.0291971 8:0.323495 9:-0.349725 10:-0.386861 11:-0.492011 12:-0.244873 13:-0.628193 14:-0.785401 15:-0.225629 16:-0.301267 17:-0.696051 18:0.473576 19:-0.49352 20:-0.391349 
2 0 1:-0.880399 2:0.167583 3:-0.0874012 4:0.141856 5:0.0190428 6:-0.774699 7:-0.125958 8:-0.892662 9:-0.762608 10:-0.566265 11:-0.379287 12:0.246415 13:-0.754518 14:-0.291566 15:-0.0870147 16:-0.173838 17:-0.354958 18:0.231579 19:-0.164003 20:-0.118509 
2 0 1:-0.192756 2:-0.0330408 3:-0.660988 4:0.153594 5:0.50279 6:-0.658967 7:-0.338491 8:-0.448879 9:-0.593851 10:0.167173 11:-0.739896 12:-0.295886 13:-0.93807 14:-0.404255 15:-0.0786896 16:-0.241249 17:-0.529889 18:0.750263 19:-0.0509274 20:-0.264721 
2 0 1:0.118277 2:-0.163763 3:-0.363836 4:-0.334438 5:-0.000498225 6:-0.716129 7:-0.357599 8:-0.218309 9:-0.438378 10:-0.134725 11:-0.757093 12:-0.0826487 13:-0.806689 14:-0.590892 15:-0.194771 16:-0.223315 17:-0.480757 18:0.346004 19:-0.242923 20:0.200817 
2 0 1:-0.546864 2:0.292741 3:0.180886 4:-0.65751 5:0.190037 6:-0.487671 7:0.159402 8:-0.16633 9:-0.625868 10:-0.342466 11:-0.722488 12:-0.585171 13:-0.441781 14:-0.865753 15:-0.377169 16:-0.306241 17:-0.266596 18:0.579481 19:0.188146 20:-1 
2 0 1:-1 2:0.563264 3:0.00351667 4:-0.54175 5:-0.175601 6:-1 7:-0.426194 8:-0.287528 9:0.0289232 10:-0.349153 11:-0.540605 12:-0.30957 13:-0.792797 14:-0.402034 15:-0.486252 16:-0.398362 17:-0.112734 18:0.208678 19:-0.705984 20:0.148275 
2 0 1:-0.184553 2:-0.500745 3:-0.321174 4:-0.460494 5:0.265094 6:-0.280769 7:0.162587 8:0.167931 9:-0.802757 10:0.615385 11:-0.539888 12:-0.674827 13:-0.41226 14:-0.811538 15:-0.708547 16:0.36217 17:-0.771203 18:0.527507 19:-0.666405 20:0.475966 
2 0 1:0.230824 2:-0.229842 3:-0.157675 4:-0.375943 5:-0.189963 6:-0.769136 7:-0.104377 8:-0.384992 9:-0.28336 10:0.111111 11:-0.427565 12:0.127268 13:-0.937114 14:-0.334568 15:-0.111248 16:-0.497129 17:-0.559354 18:-0.18004 19:-0.571681 20:-0.0834604 
2 0 1:-0.802793 2:-0.372944 3:1 4:-0.424224 5:0.263542 6:-0.35919 7:0.167658 8:-0.700959 9:-1 10:-0.476636 11:-0.36917 12:-0.688253 13:-0.619159 14:-0.328349 15:-0.220976 16:0.186319 17:-0.536704 18:0.0889331 19:0.161867 20:-0.396112 
2 0 1:0.394191 2:0.0447699 3:-0.680361 4:-0.517423 5:-0.446303 6:-0.811587 7:-0.756354 8:0.160928 9:0.390223 10:-0.214106 11:-0.620364 12:-0.275549 13:-0.846033 14:-0.605038 15:-0.160146 16:-0.22706 17:-0.910095 18:0.142712 19:-0.563049 20:0.176666 
2 0 1:-0.274515 2:-0.495066 3:0.423126 4:-0.217938 5:-0.284895 6:-1 7:-0.370265 8:0.212975 9:0.0216572 10:-0.625 11:-0.6016 12:-0.634919 13:-0.681641 14:-0.285417 15:-0.210648 16:-0.360372 17:-0.752137 18:0.136445 19:-0.0965136 20:0.0983532 
2 0 1:-0.384845 2:-0.0203301 3:-0.338607 4:-0.290159 5:0.370182 6:-0.422642 7:0.0369562 8:-0.60505 9:-0.3462 10:0.358491 11:-0.740585 12:-0.384863 13:-0.685463 14:-0.361235 15:0.325786 16:-0.646269 17:-0.510226 18:0.404541 19:-0.672699 20:0.0337984 
2 0 1:-0.640924 2:0.431077 3:-0.489046 4:-0.381132 5:-0.673392 6:-0.67897 7:-0.377292 8:0.0022256 9:-0.429117 10:-0.484979 11:-0.607994 12:-0.298701 13:-0.650215 14:-0.579399 15:0.300906 16:-0.325619 17:-0.438318 18:0.423805 19:-0.181046 20:-0.0772179 
2 0 1:-0.547631 2:-0.011886 3:0.00156617 4:-0.292354 5:0.0115682 6:-0.552096 7:0.0136091 8:-0.703206 9:-0.570788 10:-0.712575 11:-0.252285 12:-0.756076 13:-0.877994 14:0.173653 15:-0.909248 16:-0.0302677 17:-0.430063 18:0.844382 19:0.246487 20:-0.283782 
2 0 1:0.40233 2:-0.674797 3:-0.546173 4:-0.435803 5:-0.762303 6:-0.751613 7:-0.770571 8:0.0712243 9:0.219243 10:0.639469 11:-0.454371 12:-0.224408 13:-0.884013 14:-0.683871 15:0.020915 16:-0.223315 17:-0.604924 18:0.227781 19:-0.605003 20:-0.221459 
2 0 1:-0.100059 2:-0.201804 3:-0.36031 4:-0.161576 5:-0.0128533 6:-0.483425 7:-0.131592 8:-0.0897489 9:-0.0525137 10:0.0607735 11:-0.597168 12:-0.511668 13:-0.718577 14:-0.512707 15:-0.413874 16:-0.420141 17:-0.539878 18:-0.179686 19:-0.185365 20:0.270122 
2 0 1:0.574706 2:-0.190269 3:-0.0489703 4:-0.480387 5:-0.100733 6:-0.689627 7:-0.347793 8:-0.243474 9:-0.68004 10:-0.352697 11:-0.581151 12:-0.464856 13:-0.788641 14:-0.471369 15:0.13195 16:-0.376231 17:-0.50633 18:0.453762 19:-0.388179 20:0.0372457 
2 0 1:-0.178978 2:-0.0972412 3:-0.0270687 4:-0.242495 5:-0.280715 6:-0.789296 7:-0.659411 8:-0.6073 9:-0.0600142 10:-0.323944 11:-0.740744 12:-0.592538 13:-0.827817 14:-0.55831 15:-0.530391 16:0.468625 17:-0.664861 18:0.777824 19:-0.267031 20:0.232025 
2 0 1:-0.36636 2:0.381948 3:0.0964618 4:-0.91229 5:-0.212146 6:-0.951047 7:-0.39862 8:-0.640641 9:-0.567223 10:0.0052356 11:-0.267376 12:-0.414905 13:-0.626636 14:-0.435602 15:-0.642932 16:0.0503509 17:-0.641831 18:0.361272 19:0.203387 20:-0.407108 
2 0 1:-0.427978 2:0.244857 3:-0.0131877 4:-0.581353 5:0.177193 6:-1 7:-0.0699301 8:-0.322634 9:-0.582233 10:-0.511312 11:-0.40298 12:-0.665437 13:-0.631222 14:-0.512217 15:-0.348517 16:-0.144343 17:-0.40782 18:0.562747 19:-0.254317 20:-0.116368 
2 0 1:-0.631458 2:-0.153418 3:-0.0330577 4:-0.350032 5:0.0562118 6:-0.211166 7:0.050079 8:-0.6192 9:-0.372774 10:0.101737 11:-0.669569 12:-0.453404 13:-0.69665 14:-0.440695 15:-0.417094 16:0.0381108 17:-0.557167 18:0.508182 19:0.0115461 20:-0.466036 
2 2 1:-0.211682 2:-0.00541361 3:-0.1904 4:-0.342987 5:0.297035 6:-0.870364 7:-0.455176 8:-0.318667 9:-0.524819 10:0.0398614 11:-0.659798 12:-0.607046 13:-0.717504 14:-0.524437 15:-0.133218 16:0.0479527 17:-0.670088 18:0.709894 19:-0.338592 20:0.00476801 
2 2 1:0.397325 2:-0.625439 3:-0.00991121 4:0.180655 5:-0.264803 6:-0.602128 7:-0.61412 8:0.673959 9:-0.355191 10:0.276596 11:-0.764978 12:-0.0498899 13:-0.458112 14:-0.530851 15:-0.435697 16:-0.477527 17:-0.651937 18:-0.0545713 19:-0.49251 20:-0.284616 
2 2 1:0.0270542 2:0.0607132 3:-0.640782 4:-0.585407 5:0.155448 6:-0.0591195 7:0.216695 8:-0.26527 9:-0.231643 10:0.0566038 11:-0.828654 12:-0.109594 13:-0.871855 14:-0.568553 15:-0.189797 16:-0.642714 17:-0.401387 18:0.297674 19:-0.345399 20:-0.138348 
2 2 1:0.604743 2:-0.394297 3:-0.309933 4:0.284358 5:-0.898359 6:-1 7:-0.691108 8:0.323495 9:0.203643 10:-0.386861 11:-0.813249 12:-0.244873 13:-0.888458 14:-0.892701 15:-0.280941 16:-0.165088 17:-0.609208 18:0.359883 19:-0.398555 20:0.0864092 
2 2 1:-0.501432 2:0.158343 3:-0.767064 4:-0.480938 5:-0.214423 6:-0.0929104 7:-0.052578 8:0.0618992 9:-0.0473786 10:0.61194 11:-0.681997 12:-0.317445 13:-0.961987 14:-0.451493 15:0.215837 16:-0.701674 17:-0.711443 18:0.473859 19:-0.643999 20:-0.0726059 
2 2 1:-0.0297358 2:0.0285786 3:-0.174343 4:0.20048 5:-0.17509 6:-1 7:-0.718816 8:-0.209183 9:-0.337775 10:-0.0930233 11:-0.534967 12:-0.0919894 13:-0.881541 14:-0.430233 15:0.0133075 16:-0.385983 17:-0.654144 18:0.299952 19:-0.445301 20:-0.0919168 
2 2 1:-0.130892 2:0.0372533 3:-0.402223 4:-0.104044 5:0.285484 6:-0.34386 7:-0.434343 8:0.689946 9:-0.522624 10:0.122807 11:-0.659909 12:-0.377036 13:-0.642544 14:-0.54152 15:-0.11371 16:-0.563803 17:-0.652122 18:-0.298116 19:-0.391335 20:-0.00690733 
2 2 1:-0.216998 2:0.729466 3:-0.77255 4:-0.678304 5:-0.464913 6:-0.877377 7:-0.603577 8:-0.32323 9:-0.189546 10:0.809836 11:-0.669613 12:-0.500541 13:-0.59918 14:-0.293115 15:0.739162 16:-0.705935 17:-0.570912 18:-0.248342 19:-0.772499 20:0.264668 
2 2 1:0.00825967 2:0.0472745 3:-0.336803 4:-0.507515 5:-0.340064 6:-0.944179 7:-0.0616011 8:-0.489464 9:-0.362586 10:0.146269 11:-0.550625 12:-0.336029 13:-0.96959 14:-0.678209 15:0.402454 16:-0.571728 17:-0.520551 18:0.590097 19:-0.533963 20:0.337696 
2 2 1:-0.278349 2:0.171782 3:-0.562514 4:0.139043 5:-0.125223 6:-0.632131 7:-0.524292 8:-0.217909 9:0.0235066 10:-0.0557377 11:-0.52532 12:-0.663836 13:-0.732787 14:-0.228852 15:0.192568 16:-0.746714 17:-0.570912 18:0.296389 19:-0.601874 20:0.178828 
2 2 1:0.124332 2:-0.266762 3:-0.0416719 4:-0.321938 5:-0.7052 6:-0.891908 7:-0.440883 8:0.387535 9:-0.0298593 10:-0.236994 11:-0.634061 12:-0.433997 13:-0.882225 14:-0.830058 15:-0.299165 16:-0.210218 17:-0.44983 18:0.230856 19:-0.398372 20:0.0510606 
2 2 1:-0.230263 2:-0.305515 3:-0.292872 4:0.202158 5:-0.809194 6:-1 7:-0.607862 8:-0.595072 9:0.244237 10:-0.351351 11:-0.698862 12:0.0128791 13:-1 14:-0.788108 15:0.146907 16:-0.064487 17:-0.485516 18:0.863204 19:-0.624931 20:0.160268 
2 2 1:0.257076 2:-0.661819 3:-0.237177 4:-0.149192 5:0.219812 6:-1 7:-0.661793 8:-0.365579 9:0.371146 10:-0.328671 11:-0.482183 12:-0.457149 13:-0.857517 14:-0.725874 15:0.0598291 16:-0.290157 17:-0.750403 18:0.763505 19:-0.636078 20:-0.073289 
2 2 1:-0.306123 2:0.652219 3:-0.866392 4:-0.423475 5:0.0833534 6:-0.241892 7:-0.673219 8:-0.236945 9:0.317414 10:0.135135 11:-0.542747 12:-0.256336 13:-0.724662 14:-0.271622 15:0.382432 16:-0.98891 17:-0.638254 18:0.133522 19:-0.824186 20:-0.65347 
2 2 1:0.0650172 2:-0.357418 3:-0.00523963 4:-0.341195 5:-0.644346 6:-0.638065 7:-0.453959 8:0.281517 9:0.178142 10:0.548387 11:-0.819725 12:-0.457523 13:-0.868548 14:-0.873548 15:-0.168889 16:-0.35076 17:-0.577833 18:0.338123 19:-0.608295 20:-0.102228 
2 2 1:0.0981827 2:-0.182728 3:-0.18918 4:-0.166981 5:-0.707393 6:-0.24652 7:-0.379953 8:-0.0526938 9:-0.227527 10:0.186813 11:-0.227549 12:-0.332761 13:-0.701465 14:-0.353846 15:-0.278307 16:-0.549016 17:-0.782098 18:-0.052548 19:-0.301039 20:-0.099444 
2 2 1:-0.271024 2:-0.270064 3:-0.790967 4:-0.454361 5:-0.687993 6:0.060597 7:-0.458616 8:-0.177824 9:0.251664 10:-0.0686567 11:-0.320724 12:-0.0634654 13:-0.726306 14:-0.268657 15:-0.0725705 16:-0.720238 17:-0.680367 18:0.218135 19:-0.585745 20:0.533078 
2 2 1:-0.10253 2:0.00434046 3:-0.361937 4:-0.490709 5:-0.27696 6:-0.65625 7:-0.199866 8:0.0997966 9:-0.00488739 10:-0.205882 11:-0.648792 12:-0.085602 13:-0.588006 14:-0.531618 15:-0.609967 16:-0.135549 17:-0.715686 18:-0.238954 19:-0.298469 20:0.14648 
2 2 1:-0.479478 2:0.00648941 3:-0.337049 4:0.139645 5:0.172662 6:-0.518041 7:-0.626054 8:-0.217366 9:-0.60522 10:0.0515464 11:-0.692578 12:-0.212392 13:-0.894974 14:-0.696907 15:-0.45315 16:-0.175383 17:-0.417394 18:0.121949 19:0.475384 20:0.216438 
2 2 1:-0.090175 2:0.376531 3:-0.376086 4:-0.317151 5:-0.626858 6:-0.806718 7:-0.375147 8:-0.670898 9:-0.155873 10:0.116279 11:-0.549182 12:-0.42445 13:-0.736757 14:-0.290956 15:-0.216767 16:-0.558729 17:-0.108461 18:0.0718811 19:-0.0586932 20:-0.455544 
2 2 1:-0.511329 2:0.223178 3:-0.297187 4:-0.59064 5:-0.0995612 6:-0.766978 7:-0.0960068 8:-0.275655 9:-0.544524 10:0.046729 11:-0.386308 12:-0.739972 13:-0.492212 14:-0.145171 15:0.180339 16:-0.491748 17:-0.629363 18:0.347723 19:-0.0813148 20:-0.396112 
2 2 1:-0.212339 2:0.41121 3:-0.799137 4:-0.333924 5:-0.311193 6:-0.431899 7:-0.387802 8:0.00606493 9:0.316118 10:0.0329114 11:-0.422579 12:-0.355161 13:-0.793671 14:-0.255696 15:-0.0791561 16:-0.852534 17:-0.518079 18:-0.375906 19:-0.64867 20:-0.0134967 
2 2 1:-0.0273335 2:0.33378 3:-0.411529 4:-0.0780937 5:-0.207869 6:-0.882019 7:-0.580442 8:0.143571 9:-0.433516 10:0.022082 11:-0.636669 12:-0.158671 13:-0.807177 14:-0.412618 15:0.171328 16:-0.52365 17:-0.643452 18:0.531917 19:-0.808472 20:-0.257818 
2 2 1:0.703263 2:-0.292954 3:-0.588768 4:-0.269631 5:0.0446219 6:-0.386885 7:-0.801788 8:0.466678 9:-0.0652655 10:-0.0163934 11:-0.813907 12:0.0709883 13:-1 14:-0.678689 15:0.118033 16:-0.563207 17:-0.80496 18:0.092115 19:-0.146872 20:-0.67957 
2 2 1:-0.356366 2:0.327521 3:-0.542208 4:-0.553922 5:-0.0616572 6:-0.33452 7:0.0900464 8:-0.366645 9:-0.525554 10:-0.117438 11:-0.430707 12:-0.641689 13:-0.637456 14:-0.23274 15:-0.0291815 16:-0.600818 17:-0.29434 18:-0.0379291 19:-0.238628 20:0.139116 
2 2 1:0.510969 2:-0.370555 3:-0.378634 4:-0.348054 5:-0.649334 6:-0.930224 7:-0.774423 8:0.0319338 9:-0.0473786 10:0.164179 11:-0.415148 12:-0.255499 13:-1 14:-0.853731 15:-0.293118 16:-0.400014 17:-0.223115 18:0.241382 19:-0.352726 20:-0.0237604 
2 2 1:-0.324309 2:0.0621494 3:-0.48952 4:-0.325728 5:-0.036978 6:-0.440506 7:-0.137357 8:-0.674098 9:-0.135037 10:0.0218642 11:-0.655541 12:-0.198507 13:-0.812428 14:-0.503797 15:-0.0756681 16:-0.572006 17:-0.42498 18:0.164202 19:-0.121674 20:0.329961 
2 2 1:0.412528 2:-0.381533 3:-0.325194 4:0.342389 5:-0.350057 6:-1 7:-0.810586 8:0.384868 9:0.109729 10:-0.0600522 11:-0.829919 12:-0.113411 13:-1 14:-0.846475 15:-0.287728 16:-0.520884 17:-0.565107 18:0.140117 19:-0.275324 20:0.376058 
-2 0 1:-0.566889 2:0.0955365 3:-0.744654 4:-0.032454 5:-0.419798 6:-1 7:-0.622159 8:-1 9:0.557526 10:-0.25 11:-0.486992 12:-0.505219 13:-1 14:-0.69375 15:-0.407986 16:0.287424 17:-0.442308 18:0.0282793 19:-0.186862 20:0.916514 
-2 0 1:-0.523752 2:-0.641507 3:-0.588768 4:0.022279 5:-0.592297 6:-0.0803279 7:-0.801788 8:-0.191579 9:1 10:0.377049 11:-0.63354 12:-0.337247 13:-0.331967 14:-0.839344 15:-0.378871 16:-0.257362 17:-0.5124 18:-0.588799 19:-0.146872 20:-0.0357716 
-2 0 1:0.545479 2:-0.395784 3:-0.64686 4:-0.32667 5:-0.410494 6:-0.892529 7:-0.166144 8:0.00816813 9:-0.0366951 10:-0.103448 11:-0.637168 12:0.515981 13:-0.882902 14:-0.831034 15:-0.651596 16:-0.215177 17:-0.555556 18:-0.851968 19:0.146493 20:0.493327 
-2 0 1:-0.436445 2:-0.200901 3:-0.321174 4:-0.597467 5:0.165473 6:-0.856154 7:-0.255944 8:-0.0791687 9:0.0303353 10:-0.169231 11:-0.539888 12:-0.259787 13:-0.843269 14:-0.924615 15:-0.475385 16:0.122983 17:-0.450888 18:0.0881866 19:-0.466248 20:0.274572 
-2 0 1:0.0916202 2:-0.463876 3:-0.417595 4:0.26184 5:-0.205758 6:-0.431611 7:-0.558994 8:0.0881303 9:0.0316014 10:0.0942249 11:-0.63957 12:-0.295886 13:-0.93807 14:-0.761702 15:-0.631476 16:0.136797 17:-0.566051 18:0.0558961 19:-0.472737 20:0.133169 
-2 0 1:0.515687 2:-0.113968 3:-0.487653 4:-0.303161 5:-0.616683 6:-1 7:-0.754914 8:-0.0741599 9:0.42718 10:-0.27027 11:-0.765768 12:-0.312422 13:-1 14:-0.801351 15:-0.692793 16:0.10359 17:-0.316701 18:-0.568095 19:-0.0623276 20:0.407928 
-2 0 1:0.176709 2:-0.227086 3:-0.530539 4:-0.677997 5:-0.141494 6:-0.803675 7:0.0155094 8:0.0990217 9:-0.537086 10:0.133858 11:-0.481577 12:0.0663452 13:-1 14:-0.691339 15:-0.641995 16:-0.191537 17:-0.250555 18:-0.724624 19:0.548021 20:-0.16363 
-2 0 1:0.01617 2:-0.430629 3:-0.458254 4:-0.836576 5:-0.181184 6:-0.13526 7:-0.161324 8:0.201853 9:0.032743 10:0.0404624 11:-0.475067 12:0.0458177 13:-1 14:-0.943353 15:-0.780989 16:0.0773583 17:-0.518601 18:-0.369371 19:-0.147694 20:-0.0246075 
-2 0 1:-0.293868 2:-0.332232 3:-0.639353 4:-0.219254 5:-0.280111 6:0.282033 7:0.00042983 8:-0.161389 9:-0.143964 10:0.304965 11:-0.602413 12:0.0236986 13:-0.975916 14:-0.698818 15:-0.337168 16:-0.426071 17:-0.282779 18:-0.385973 19:-0.0362812 20:0.0403276 
-2 0 1:-0.0831421 2:-0.320838 3:-0.429809 4:-0.109346 5:-0.334441 6:-0.524 7:-0.0766942 8:0.0836922 9:-0.274122 10:0.134545 11:-0.75455 12:-0.278362 13:-0.925909 14:-0.643636 15:-0.448889 16:-0.145775 17:-0.394312 18:0.0518791 19:-0.148423 20:0.270911 
-2 0 1:0.0598861 2:-0.42512 3:-0.354019 4:-0.264668 5:-0.348489 6:-0.595363 7:0.0838837 8:-0.259337 9:0.00265136 10:0.149923 11:-0.630473 12:-0.306961 13:-0.937017 14:-0.66677 15:-0.578362 16:-0.111767 17:-0.613839 18:-0.403047 19:0.0992651 20:0.647166 
-2 0 1:-0.294115 2:-0.306585 3:-0.48463 4:0.346804 5:-0.216313 6:-0.582123 7:0.35094 8:-0.299695 9:-0.432752 10:0.0726257 11:-0.805846 12:-0.272629 13:-0.943087 14:-0.452514 15:-0.57666 16:0.0388005 17:-0.468271 18:0.064536 19:-0.176263 20:0.729114 
-2 0 1:-0.544731 2:0.117234 3:-0.801085 4:-0.223767 5:-0.128049 6:-0.44695 7:0.430348 8:-0.070148 9:-0.198342 10:0.15342 11:-0.54419 12:-0.417234 13:-1 14:-0.746396 15:-0.243623 16:-0.314272 17:-0.340253 18:-0.310014 19:-0.262515 20:0.494579 
-2 0 1:-0.417338 2:-0.150243 3:-0.848293 4:-0.13685 5:-0.404039 6:0.059115 7:-0.0156074 8:-0.40991 9:-0.24171 10:0.784071 11:-0.609917 12:-0.0665353 13:-0.855752 14:-0.653097 15:-0.356224 16:-0.368513 17:-0.241933 18:-0.166994 19:-0.0789236 20:0.130211 
-2 0 1:0.0887085 2:0.286777 3:-0.698535 4:-0.0514456 5:-0.610412 6:-0.23413 7:-0.917468 8:-0.00600875 9:0.148333 10:-0.0170648 11:-0.386074 12:0.0361559 13:-0.860922 14:-0.732423 15:0.0862344 16:-0.818252 17:-0.878183 18:0.36053 19:-0.585568 20:0.0704296 
-2 0 1:-0.859264 2:-0.716542 3:-0.411003 4:-0.403422 5:-0.419798 6:-0.610417 7:-0.244318 8:-0.372599 9:0.360101 10:0.5 11:-0.716208 12:-0.461986 13:-0.575521 14:-0.795833 15:-0.684259 16:1 17:-0.752137 18:0.244611 19:-0.0965136 20:-0.174367 
-2 0 1:-0.300049 2:-0.309697 3:-0.161129 4:0.332035 5:-0.211258 6:-0.755022 7:-0.260818 8:-0.254242 9:-0.249787 10:-0.318777 11:-0.285802 12:-0.138775 13:-0.688592 14:-0.871616 15:-0.404367 16:-0.394035 17:-0.0648304 18:-0.770921 19:0.0226361 20:0.176954 
-2 0 1:-0.269621 2:-0.268648 3:0.028049 4:-0.400318 5:-0.470598 6:-0.687029 7:0.0117916 8:-0.502805 9:-0.494269 10:0.707113 11:-0.299974 12:-0.250704 13:-0.829498 14:-1 15:-0.112227 16:-0.188259 17:-0.452419 18:0.2075 19:-0.0564427 20:-0.552068 
-2 0 1:-0.474481 2:0.454718 3:-0.747248 4:-0.222743 5:-0.6924 6:-0.806218 7:-0.373528 8:0.28796 9:-0.153118 10:0.119171 11:-0.205519 12:-0.207514 13:-0.47215 14:-0.492228 15:0.334945 16:-0.750728 17:-0.815066 18:-0.193657 19:-0.550597 20:-0.181432 
-2 0 1:-0.162371 2:-0.622635 3:-0.775016 4:-0.796896 5:-0.72234 6:0.0246575 7:-0.148194 8:0.509445 9:-0.244373 10:0.221135 11:1 12:-0.114089 13:-0.0829256 14:-0.961644 15:-0.495803 16:-0.902569 17:-0.55763 18:-0.903938 19:-0.0155358 20:-0.820677 
-2 0 1:-0.536766 2:-0.252114 3:-0.32304 4:0.365494 5:0.026608 6:0.246667 7:-0.193939 8:-0.208334 9:-0.366015 10:0.963636 11:-0.341127 12:-0.348793 13:-0.320833 14:-0.70303 15:-0.357037 16:-0.507599 17:-0.639472 18:-0.514517 19:-0.0538033 20:-0.585927 
-2 0 1:-0.120053 2:0.283582 3:-0.791869 4:0.0305406 5:-0.373982 6:-0.823585 7:-0.657804 8:-0.0884932 9:-0.299758 10:-0.0943396 11:-0.551864 12:-0.448934 13:-0.807783 14:-0.630189 15:-0.0706499 16:-0.251591 17:-0.10208 18:-0.0941728 19:-0.181748 20:-0.0560168 
-2 0 1:-0.357206 2:-0.309384 3:-0.314952 4:-0.246042 5:-0.051881 6:-0.244444 7:-0.206152 8:-0.200222 9:0.257542 10:0.333333 11:-0.702316 12:-0.315255 13:-1 14:-0.851515 15:-0.732099 16:0.214792 17:-0.729604 18:-0.115942 19:-0.0362812 20:-0.0173464 
-2 0 1:-0.0244839 2:-0.379491 3:-0.471981 4:-0.101531 5:-0.42538 6:-0.742069 7:-0.124451 8:0.174321 9:-0.00557389 10:0.448276 11:-0.453795 12:-0.209146 13:-0.964871 14:-0.729655 15:-0.581916 16:-0.236621 17:-0.589744 18:-0.267126 19:-0.19247 20:0.177348 
-2 0 1:-0.156492 2:-0.251917 3:-0.363557 4:-0.328548 5:-0.338114 6:-0.399541 7:-0.112594 8:0.207603 9:-0.523786 10:-0.0642202 11:-0.291422 12:-0.277947 13:-0.906537 14:-0.640367 15:-0.0267074 16:-0.816207 17:-0.29052 18:-0.221793 19:0.193597 20:0.0232925 
-2 0 1:-0.351024 2:-0.229433 3:-0.085147 4:0.185967 5:-0.624044 6:-0.563084 7:-0.717502 8:-0.400744 9:-0.00470133 10:-0.214953 11:-0.480565 12:-0.49431 13:-1 14:-0.633645 15:-0.114746 16:-0.404568 17:-0.0548766 18:-0.202205 19:0.0943162 20:0.174817 
-2 0 1:-0.532201 2:-0.163478 3:-0.532588 4:-0.54175 5:-0.845085 6:-0.762288 7:-0.385208 8:0.188871 9:0.318034 10:0.0169492 11:-0.568577 12:0.323541 13:-0.784163 14:-0.584746 15:-0.550471 16:-0.387821 17:-0.344633 18:-0.213719 19:-0.191456 20:-0.0403182 
-2 0 1:-0.389817 2:-0.3235 3:-0.455646 4:-0.643768 5:-0.0131892 6:-0.561033 7:-0.318822 8:-0.283055 9:0.356923 10:0.464789 11:-0.709751 12:0.0933486 13:-0.856514 14:-0.539906 15:-0.110589 16:-0.839377 17:-0.469363 18:0.241564 19:-0.633515 20:0.42869 
-2 0 1:-0.476152 2:-0.192128 3:-0.508797 4:-0.019662 5:-0.559353 6:-0.0327586 7:0.459248 8:-0.314907 9:-0.0989377 10:0.448276 11:-0.605552 12:-0.24731 13:-1 14:-0.887356 15:-0.651596 16:-0.000733676 17:-0.760684 18:-0.016479 19:0.246188 20:0.192395 
-2 0 1:-0.44833 2:-0.726566 3:-0.657415 4:-0.295876 5:-0.56386 6:-0.725505 7:-0.778148 8:-0.0797355 9:0.092244 10:0.453211 11:-0.669944 12:-0.300793 13:0.19633 14:0.114862 15:-0.276983 16:0.15941 17:-0.585227 18:-0.278952 19:-0.554391 20:0.0953507 
-2 0 1:0.557268 2:-1 3:-0.64563 4:0.187746 5:0.155884 6:-0.4 7:0.0345163 8:0.341363 9:-0.060993 10:0.796791 11:-0.88046 12:0.976966 13:-0.891043 14:-0.475936 15:-1 16:-0.00876095 17:-0.809132 18:-0.82548 19:-0.536178 20:-0.277913 
-2 0 1:0.288577 2:-0.367337 3:-0.73671 4:-0.0147889 5:-0.338428 6:-0.604233 7:-0.16835 8:0.195713 9:0.0986576 10:0.52381 11:-1 12:0.251706 13:-0.946098 14:-0.118519 15:-0.438683 16:-0.513581 17:-0.685253 18:-0.0610006 19:-0.357521 20:-0.152723 
-2 2 1:0.396509 2:-0.060586 3:-0.77255 4:-0.444776 5:-0.464913 6:-0.877377 7:-0.445007 8:-0.217909 9:0.0235066 10:0.809836 11:-0.200659 12:0.370361 13:-0.933197 14:-0.935738 15:-0.701858 16:-0.216583 17:-0.41488 18:-0.65689 19:-0.374373 20:-0.336211 
-2 2 1:0.188308 2:-0.0675076 3:-0.461406 4:-0.0845475 5:-0.347467 6:0.0344681 7:-0.485493 8:0.0930122 9:-0.528014 10:0.991489 11:-0.402133 12:-0.376623 13:-0.913298 14:-0.749787 15:0.0641135 16:-0.887706 17:-0.341844 18:-0.43016 19:-0.188016 20:-0.145354 
-2 2 1:-0.276173 2:-0.529937 3:-0.450047 4:-0.387636 5:0.0566676 6:-0.522553 7:0.474919 8:-0.0322899 9:-0.435842 10:-0.114894 11:-0.39433 12:-0.0233981 13:-0.942199 14:-0.777589 15:-0.656044 16:0.214926 17:-0.578105 18:-0.238684 19:-0.0649877 20:0.207441 
-2 2 1:-0.842825 2:-0.145508 3:-0.473311 4:-0.430239 5:-0.293022 6:-0.699598 7:-0.0288426 8:-0.215371 9:0.303014 10:0.156627 11:-0.423474 12:-0.220296 13:-0.754518 14:-0.685141 15:-0.452209 16:-0.223789 17:-0.283287 18:-0.268851 19:-0.303336 20:-0.0659362 
-2 2 1:-0.0913401 2:-0.259359 3:-0.955699 4:1 5:-0.917151 6:-0.549398 7:-0.854326 8:-0.989417 9:-0.240671 10:-0.421687 11:-0.0478901 12:-0.253633 13:-1 14:-0.173494 15:0.186881 16:-0.698319 17:0.433426 18:0.606902 19:-0.164003 20:-0.74938 
-2 2 1:-0.125753 2:-0.428465 3:-0.618311 4:-0.169661 5:0.0379743 6:-0.121722 7:-0.00622665 8:-0.339203 9:-0.477509 10:0.502935 11:-0.464115 12:-0.0491123 13:-1 14:-0.731507 15:-0.228876 16:-0.172372 17:-0.534347 18:-0.21303 19:-0.151324 20:0.408966 
-2 2 1:-0.0748441 2:-0.158351 3:-0.805688 4:-0.385326 5:-0.913345 6:-0.771951 7:0.253326 8:0.0925955 9:-0.558925 10:0.609756 11:-0.671483 12:-0.192042 13:0.0560213 14:-0.342683 15:-0.445528 16:-0.200793 17:-0.601001 18:-0.193329 19:0.0577402 20:-0.101198 
-2 2 1:0.303409 2:-0.296571 3:-0.621969 4:-0.729644 5:-0.120597 6:-0.417899 7:-0.341351 8:-0.251513 9:0.550613 10:-0.0661479 11:-0.489667 12:-0.249352 13:-1 14:-0.771206 15:-0.587203 16:-0.00824335 17:-0.629652 18:-0.300007 19:-0.39252 20:0.0919861 
-2 2 1:-0.153532 2:-0.477246 3:-0.692881 4:-0.619059 5:0.174306 6:0.105419 7:-0.642633 8:-0.426995 9:-0.25899 10:-0.172414 11:-0.144861 12:0.0729993 13:-0.899631 14:-0.710345 15:-0.552053 16:-0.215177 17:0.0549451 18:-0.860493 19:-0.0600181 20:0.654541 
-2 2 1:0.128422 2:-0.0254378 3:-0.50493 4:0.350984 5:-0.793899 6:-0.842857 7:-0.0855615 8:-0.026738 9:-0.218192 10:0.00840336 11:-0.712356 12:-0.1074 13:-0.657563 14:-0.423529 15:-0.554248 16:-0.0800235 17:-0.400129 18:-0.658893 19:-0.41691 20:0.442118 
-2 2 1:-0.20344 2:0.268068 3:-0.714239 4:0.428694 5:0.0586974 6:-0.79337 7:-0.599196 8:-0.932754 9:-0.261937 10:-0.0718232 11:0.223453 12:-0.419947 13:-0.887431 14:-0.0254144 15:-0.246409 16:-0.729366 17:-0.0140246 18:-0.237056 19:-0.520803 20:-0.380791 
-2 2 1:0.11139 2:-0.740717 3:-0.59968 4:-0.517423 5:-0.446303 6:0.036272 7:-0.0254179 8:-0.365014 9:-0.42818 10:0.209068 11:-0.260085 12:0.268079 13:-0.79471 14:-0.605038 15:-0.503722 16:-0.00775574 17:-0.430601 18:-0.43272 19:0.398242 20:-0.548757 
-2 2 1:-0.265852 2:-0.299839 3:-0.651973 4:-0.61776 5:-0.365837 6:-0.861481 7:-0.373064 8:-0.186703 9:0.345059 10:0.155556 11:-0.522648 12:-0.354383 13:-1 14:-0.927407 15:-0.719342 16:0.631476 17:-0.603419 18:0.268648 19:-0.550265 20:0.401376 
-2 2 1:-0.184553 2:-0.0918663 3:-0.783153 4:-0.118062 5:-0.731112 6:0.0788462 7:-0.534965 8:0.0134935 9:0.655154 10:0.615385 11:-0.751472 12:-0.515196 13:-0.608173 14:-0.811538 15:-0.854274 16:0.00339023 17:-0.313609 18:-0.271257 19:-0.499608 20:-0.27926 
-2 2 1:-0.872655 2:0.817447 3:-0.756116 4:-0.0579404 5:-0.833775 6:-0.143511 7:-0.630812 8:0.462658 9:-0.0618772 10:0.0992366 11:-0.166788 12:-0.266611 13:-0.377863 14:-0.850382 15:0.156913 16:-0.88306 17:-0.455079 18:-0.159979 19:-1 20:-0.138976 
-2 2 1:-0.064752 2:0.112406 3:-0.969685 4:-0.532851 5:0.0435786 6:0.102703 7:-0.287023 8:-0.0741599 9:-0.421008 10:0.769042 11:-0.60695 12:-0.541867 13:-0.699631 14:-0.662899 15:0.824625 16:-0.736795 17:-0.56152 18:-0.504312 19:-0.616407 20:0.584827 
-2 2 1:-0.595611 2:0.258994 3:-0.720702 4:-0.607128 5:-0.38106 6:-0.528967 7:0.0964049 8:0.0800143 9:0.117422 10:0.753149 11:-0.648078 12:-0.317367 13:-0.897355 14:-0.703778 15:0.0307305 16:-0.60301 17:-0.250791 18:-0.485032 19:-0.606744 20:0.0447708 
-2 2 1:-0.254234 2:-0.0209625 3:-0.874836 4:-0.630721 5:0.118254 6:-0.675723 7:-0.510772 8:-0.12309 9:-0.0611604 10:0.872832 11:-0.379671 12:-0.386015 13:-0.764451 14:-0.546821 15:-0.474374 16:-0.31806 17:-0.243516 18:-0.309349 19:-0.348236 20:-0.0246075 
-2 2 1:-0.062592 2:-0.693751 3:-0.815192 4:-0.667333 5:-0.186208 6:-0.497987 7:-0.837706 8:0.671665 9:0.379787 10:0.771812 11:-0.731592 12:0.294742 13:-0.45302 14:-0.868456 15:-0.186279 16:-0.572102 17:-0.520909 18:-0.433423 19:0.0478017 20:-0.835119 
-2 2 1:-0.879833 2:-0.31514 3:-0.842738 4:0.823197 5:-0.187955 6:-0.81206 7:-0.0278666 8:-0.00435597 9:0.250121 10:0.0854271 11:-0.455892 12:-0.236043 13:-0.590452 14:-0.507538 15:-0.543049 16:-0.260436 17:-0.402139 18:0.295705 19:-0.651318 20:-0.222333 
-2 2 1:-0.322314 2:-0.180252 3:-0.939663 4:-0.0779406 5:-0.311729 6:-0.0828338 7:-0.209314 8:-0.282336 9:0.138161 10:0.0463215 11:-0.335222 12:-0.429944 13:-0.777929 14:-0.679564 15:0.114986 16:-0.361255 17:-0.546147 18:0.0318161 19:-0.385531 20:-0.0398648 
-2 2 1:-0.16529 2:-0.421577 3:-0.3331 4:0.314853 5:-0.639207 6:-0.744419 7:0.0465935 8:-0.0593276 9:-0.0351355 10:0.202733 11:-0.372644 12:-0.359565 13:-0.767938 14:-0.642825 15:-0.0678815 16:-0.534643 17:-0.539279 18:-0.512797 19:-0.051648 20:0.0722615 
-2 2 1:0.314159 2:-0.503489 3:-0.277766 4:0.0497067 5:-0.881546 6:-0.748993 7:-0.18853 8:-0.72967 9:0.161729 10:-0.194631 11:-0.805433 12:0.183322 13:-0.72651 14:-0.868456 15:-0.491424 16:0.262643 17:-0.281363 18:-0.572804 19:-0.185043 20:0.394868 
-2 2 1:-0.590484 2:-0.385494 3:-0.767483 4:0.166697 5:-0.820247 6:0.115439 7:-0.193939 8:-0.0802525 9:-0.345287 10:0.136842 11:-0.711383 12:0.0404303 13:-0.356579 14:-0.312281 15:-0.202339 16:-0.0910254 17:-0.728655 18:0.479161 19:-0.117436 20:-0.114082 
-2 2 1:-0.127041 2:-0.29091 3:-0.399751 4:-0.832049 5:-0.0898595 6:-0.341935 7:-0.219941 8:0.130793 9:-0.0441789 10:0.0557185 11:-0.59387 12:0.112091 13:-0.760997 14:-0.942522 15:-0.466667 16:-0.379939 17:-0.616212 18:-0.35617 19:0.27177 20:0.0743602 
-2 2 1:0.243734 2:-0.287487 3:-0.575212 4:0.111569 5:-0.382766 6:-0.608889 7:-0.178134 8:-0.0747274 9:-0.185833 10:0.223529 11:-0.412384 12:-0.198856 13:-0.973366 14:-0.743791 15:-0.306609 16:-0.292544 17:-0.548986 18:-0.210958 19:-0.319728 20:0.241665 
-2 2 1:-0.984823 2:-0.0634371 3:-0.753866 4:-0.926875 5:-0.434695 6:-0.541104 7:-1 8:0.397218 9:0.641099 10:0.91411 11:-0.499648 12:-0.542617 13:1 14:-0.639264 15:0.394683 16:-0.920339 17:-0.708038 18:-0.12302 19:-0.893577 20:-0.734866 
-2 2 1:-0.0855324 2:0.0390004 3:-0.495002 4:-0.728345 5:-0.016037 6:-0.474473 7:-0.377049 8:-0.135157 9:-0.230128 10:0.236534 11:-0.607773 12:-0.337247 13:-0.904567 14:-0.219672 15:0.277752 16:-0.636027 17:-0.41488 18:0.140752 19:-0.674999 20:-0.0664287 
-2 -2 1:-0.0279717 2:-0.61199 3:-0.639148 4:-0.375349 5:-0.109157 6:-1 7:-0.607862 8:-0.334616 9:0.654029 10:0.0378378 11:-0.223083 12:1 13:-0.77973 14:-0.788108 15:-0.754234 16:-0.467872 17:-0.614137 18:-0.820678 19:0.0314396 20:-0.264291 
-2 -2 1:-0.284864 2:-0.200418 3:-0.536491 4:0.115277 5:-1 6:-1 7:-0.786002 8:0.329201 9:0.505861 10:-1 11:-0.200978 12:0.315448 13:-1 14:-1 15:-1 16:0.1378 17:-0.262991 18:-0.718353 19:0.381615 20:-0.379511 
-2 -2 1:-0.637462 2:-0.904924 3:-0.969006 4:-0.991855 5:-0.670997 6:-0.355172 7:-0.374608 8:-0.545675 9:0.974746 10:0.344828 11:-0.178735 12:-0.223457 13:-1 14:-0.746552 15:-0.934674 16:-0.751284 17:1 18:-0.464062 19:0.271112 20:-0.183771 
-2 -2 1:-0.0297358 2:0.193398 3:-0.127787 4:-0.110099 5:-0.17509 6:-0.347674 7:-0.0158562 8:-0.162493 9:-0.58964 10:-0.0232558 11:-0.0871954 12:0.00453136 13:-0.763081 14:-0.430233 15:-0.911886 16:-0.13289 17:-0.723315 18:-0.424509 19:-0.29402 20:-0.472457 
-2 -2 1:-0.216998 2:-0.990059 3:-0.720041 4:-0.269631 5:1 6:-0.846721 7:-0.306259 8:-0.32323 9:-0.864215 10:-0.114754 11:-0.0473469 12:-0.0650902 13:-0.916496 14:-0.759016 15:0.366485 16:-0.206388 17:-0.80496 18:0.092115 19:0.492974 20:0.500727 
-2 -2 1:-0.356773 2:-0.544509 3:-0.412533 4:-0.600818 5:-0.437125 6:-0.313761 7:0.40506 8:-0.197618 9:-0.821865 10:-0.266055 11:-0.0979544 12:0.115516 13:-1 14:-0.580428 15:-0.629222 16:0.10616 17:-0.417862 18:-0.507589 19:0.803657 20:-0.0167398 
-2 -2 1:-0.38638 2:-0.674173 3:-0.525605 4:-0.47439 5:-0.553528 6:-0.62058 7:-0.158893 8:-0.166012 9:-0.434506 10:0.147826 11:-0.377366 12:0.145536 13:-1 14:-0.289855 15:-0.428921 16:-0.0635126 17:-0.172352 18:-0.306565 19:0.307306 20:0.0556665 
-2 -2 1:0.353182 2:-0.653978 3:-0.340314 4:-0.340546 5:-0.204868 6:-0.577401 7:0.0929635 8:-0.378271 9:-0.668615 10:-0.186441 11:-0.739518 12:-0.215776 13:-1 14:-0.667797 15:-0.400628 16:0.543249 17:-0.327828 18:-0.0963866 19:0.372074 20:-0.206724 
-2 -2 1:0.148495 2:-0.851627 3:-0.0865801 4:-0.539181 5:-0.0168114 6:-1 7:-0.0738878 8:0.195532 9:-0.528014 10:-0.285106 11:-0.331905 12:-0.0233981 13:-1 14:-0.332766 15:-0.871017 16:0.25021 17:-0.746863 18:0.14427 19:0.476335 20:-0.535286 
-2 -2 1:0.16315 2:-0.0634371 3:-0.459106 4:-0.70839 5:0.359825 6:-0.770552 7:0.335192 8:-0.489611 9:-0.820645 10:0.177914 11:-0.29715 12:0.170334 13:-1 14:-0.759509 15:-0.814042 16:0.529453 17:-1 18:0.641441 19:-0.361462 20:-0.253004 
-2 -2 1:0.10698 2:-0.204108 3:-0.0889489 4:-0.097919 5:-0.536666 6:-1 7:-0.482742 8:0.341363 9:-0.176824 10:0.026738 11:-0.55686 12:-0.0883764 13:-0.891043 14:-0.580749 15:-0.0679739 16:-0.308064 17:-0.650075 18:0.062985 19:-0.721707 20:-0.137907 
-2 -2 1:-0.399818 2:-0.0943001 3:-0.673158 4:-0.588907 5:-0.304167 6:-0.165179 7:-0.40625 8:0.451985 9:0.327868 10:0.714286 11:-0.536109 12:-0.634919 13:-0.90904 14:-0.65 15:-0.0189484 16:-0.739796 17:-0.25641 18:-0.435289 19:-0.457908 20:-0.252287 
-2 -2 1:-0.32873 2:-0.328348 3:-0.184518 4:-0.437817 5:0.143042 6:-0.256954 7:0.4413 8:0.325436 9:-0.430348 10:0.112583 11:-0.518869 12:-0.274164 13:-0.460265 14:-0.870199 15:-0.698896 16:-0.331629 17:-0.448463 18:0.380714 19:-0.310718 20:-0.844428 
-2 -2 1:0.0772858 2:-0.071921 3:-0.854515 4:-0.204366 5:-0.492185 6:-0.619919 7:-0.45935 8:-0.266502 9:0.409629 10:0.707317 11:-0.794477 12:-0.208913 13:-0.83435 14:-0.482114 15:0.139747 16:-0.491512 17:-0.516364 18:-0.383279 19:-0.64742 20:0.218084 
-2 -2 1:-0.676342 2:-0.146383 3:-0.300641 4:-0.597467 5:-0.631492 6:-0.0410256 7:0.0540793 8:-0.0173939 9:0.196954 10:0.0461538 11:-0.553993 12:-0.217219 13:-0.947756 14:-0.849231 15:0.0103704 16:-0.498901 17:-0.176331 18:-0.524199 19:-0.688645 20:0.610228 
-2 -2 1:-0.107443 2:-0.335759 3:-0.402223 4:0.0595907 5:0.134014 6:-0.859398 7:1 8:-0.833008 9:-0.934298 10:-0.368421 11:-0.512843 12:-0.279951 13:-0.846805 14:-0.557895 15:-0.658145 16:0.516832 17:-0.642182 18:-0.332816 19:0.369495 20:0.82424 
-2 -2 1:-0.269142 2:-0.608235 3:-0.681041 4:-0.763597 5:-0.515242 6:-0.369985 7:-0.222331 8:0.345309 9:0.0743501 10:0.249617 11:-0.0626076 12:0.524236 13:-0.750383 14:-0.699847 15:-0.257308 16:-0.692008 17:-0.635607 18:-0.82446 19:-0.0436603 20:0.0256834 
-2 -2 1:-0.443373 2:-0.658903 3:-0.0461273 4:-0.574028 5:-0.467411 6:-0.3 7:0.0991736 8:0.126637 9:-0.060993 10:-0.294118 11:-0.409769 12:0.000402125 13:-0.782086 14:-0.737968 15:-0.513725 16:-0.17504 17:-0.745509 18:-0.603364 19:0.530612 20:0.212108 
-2 -2 1:-0.472511 2:-0.718875 3:-0.811309 4:0.0604974 5:-0.0598539 6:0.181941 7:0.0371434 8:0.327597 9:0.00306701 10:0.191874 11:-0.35505 12:0.0454928 13:-0.724041 14:-0.557562 15:-0.247354 16:-0.651808 17:-0.543439 18:-0.519632 19:0.0964205 20:-0.415075 
-2 -2 1:0.348563 2:-0.906875 3:-0.222308 4:-0.307407 5:-0.663303 6:-0.434286 7:0.0566845 8:0.135226 9:-0.145384 10:0.169748 11:-0.398002 12:-0.0934494 13:-0.828782 14:-0.604706 15:-0.261326 16:-0.529453 17:-0.620082 18:-0.606537 19:0.195335 20:0.222109 
-2 -2 1:-0.248653 2:-0.427408 3:-0.45814 4:-0.664103 5:-0.17916 6:-0.172973 7:0.158588 8:-0.133355 9:-0.341179 10:-0.410319 11:-0.160907 12:0.192356 13:-0.749693 14:-0.518428 15:-0.627628 16:-0.706235 17:-0.313047 18:0.210062 19:0.044226 20:-0.122771 
-2 -2 1:-0.281275 2:-0.369179 3:-0.712832 4:-0.424866 5:0.00596497 6:-0.0812139 7:-0.231214 8:0.0161716 9:-0.295919 10:0.803468 11:-0.443268 12:-0.21808 13:-0.911669 14:-0.46185 15:0.160758 16:-0.605636 17:-0.518601 18:-0.459406 19:-0.197829 20:0.0888946 
-2 -2 1:-0.255951 2:-0.526706 3:-0.673158 4:-0.0854495 5:-0.40695 6:-0.332143 7:0.103535 8:-0.165457 9:-0.101902 10:-0.047619 11:0.069677 12:0.295626 13:-0.75744 14:-0.572222 15:-0.759436 16:-0.628745 17:-0.339031 18:-0.363179 19:-0.0706997 20:-0.135407 
-2 -2 1:-0.333098 2:-0.271399 3:-0.918289 4:-0.88107 5:-0.41229 6:-0.306122 7:0.121606 8:0.441276 9:0.187216 10:-0.0649351 11:-0.0315355 12:0.139911 13:-0.73539 14:-0.6 15:-0.381406 16:-0.565288 17:-0.558537 18:-1 19:-0.291962 20:0.113532 
-2 -2 1:-0.0359832 2:-0.556612 3:-0.38887 4:-0.581193 5:-0.511158 6:0.18495 7:-0.138074 8:0.213803 9:-0.297128 10:0.0930693 11:-0.303165 12:0.0955094 13:-1 14:-0.650693 15:-0.369769 16:-0.629625 17:-0.552374 18:-0.529472 19:0.305314 20:0.276566 
-2 -2 1:-0.475393 2:-0.821114 3:-0.566838 4:-0.810178 5:0.416283 6:-0.472 7:0.137968 8:0.475351 9:-0.301922 10:-0.265882 11:0.09387 12:-0.0599673 13:-0.808235 14:-0.769412 15:-0.500758 16:-0.487645 17:-0.692066 18:-0.781057 19:1 20:-0.244312 
-2 -2 1:-0.10309 2:-0.485207 3:-0.723462 4:-0.333337 5:-0.385523 6:-0.512704 7:0.0239858 8:0.193083 9:-0.302088 10:0.0944625 11:-0.278681 12:0.144125 13:-0.933632 14:-0.553094 15:-0.259501 16:-0.222162 17:-0.4962 18:-0.254996 19:-0.321944 20:-0.0881982 
-2 -2 1:-0.548703 2:-0.403579 3:-0.632107 4:-0.122977 5:0.195979 6:-0.0157895 7:0.38843 8:-0.723223 9:-0.027463 10:-0.138756 11:-0.358674 12:0.196649 13:-0.805024 14:-0.67177 15:-0.528655 16:-0.448088 17:-0.629984 18:0.0220688 19:0.327995 20:-0.160013 
