svm_type c_svc
kernel_type rbf
gamma 3.0517578125e-05
nr_class 3
total_sv 24
rho 5.5879354476928711e-07 -5.8673322200775146e-07 6.4820051193237305e-07
label 0 1 2
nr_sv 8 8 8
SV
0.03125 0.03125 1:-0.72 2:0.97910331 3:-0.61374262 
0.03125 0.03125 1:-0.925 2:0.94327181 3:-0.80687984 
0.03125 0.03125 1:-1 2:0.89093975 3:-1 
0.03125 0.03125 1:-0.845 2:0.89497456 3:-0.58442705 
0.03125 0.03125 1:-0.805 2:0.9690464 3:-0.61211916 
0.03125 0.03125 1:-0.735 2:1 3:-0.58442705 
0.03125 0.03125 1:-0.91 2:0.94321159 3:-0.61374262 
0.03125 0.03125 1:-0.935 2:0.95025744 3:-0.58442705 
-0.03125 0.03125 1:-0.12 2:-1 3:0.94609107 
-0.03125 0.03125 1:-0.11 2:-0.95483424 3:0.71943957 
-0.03125 0.03125 1:-0.175 2:-0.88166571 3:0.98481693 
-0.03125 0.03125 1:-0.01 2:-0.81668724 3:0.91168515 
-0.03125 0.03125 1:-0.24 2:-0.66613471 3:0.98481693 
-0.03125 0.03125 1:-0.125 2:-0.64222697 3:0.98415336 
-0.03125 0.03125 1:0.195 2:-0.49962362 3:1 
-0.03125 0.03125 1:-0.035 2:-0.66354521 3:0.37997682 
-0.03125 -0.03125 1:0.775 2:0.58399326 3:-0.3929061 
-0.03125 -0.03125 1:0.855 2:0.45018217 3:-0.6230245 
-0.03125 -0.03125 1:1 2:0.27644455 3:-0.36391827 
-0.03125 -0.03125 1:0.935 2:0.35563518 3:-0.2128041 
-0.03125 -0.03125 1:0.535 2:0.55448496 3:-0.23155285 
-0.03125 -0.03125 1:0.625 2:0.53750263 3:-0.57352979 
-0.03125 -0.03125 1:0.795 2:0.33347385 3:-0.68563256 
-0.03125 -0.03125 1:1 2:0.30474843 3:-0.30970674 
